## LambdaMART
## No. of trees = 1000
## No. of leaves = 10
## No. of threshold candidates = 256
## Learning rate = 0.1
## Stop early = 100

<ensemble>
	<tree id="1" weight="0.1">
		<split>
			<feature> 1 </feature>
			<threshold> 0.7 </threshold>
			<split pos="left">
				<feature> 2 </feature>
				<threshold> 950.6326 </threshold>
				<split pos="left">
					<feature> 1 </feature>
					<threshold> 0.428571 </threshold>
					<split pos="left">
						<feature> 2 </feature>
						<threshold> 10.141184 </threshold>
						<split pos="left">
							<output> 2.0 </output>
						</split>
						<split pos="right">
							<feature> 8 </feature>
							<threshold> 0.0 </threshold>
							<split pos="left">
								<feature> 1 </feature>
								<threshold> 0.28 </threshold>
								<split pos="left">
									<output> -1.3543003 </output>
								</split>
								<split pos="right">
									<output> 0.12317533 </output>
								</split>
							</split>
							<split pos="right">
								<output> 0.87940246 </output>
							</split>
						</split>
					</split>
					<split pos="right">
						<feature> 2 </feature>
						<threshold> 853.0345 </threshold>
						<split pos="left">
							<feature> 3 </feature>
							<threshold> 0.67390925 </threshold>
							<split pos="left">
								<output> 1.5716176 </output>
							</split>
							<split pos="right">
								<output> 2.0 </output>
							</split>
						</split>
						<split pos="right">
							<output> 2.0 </output>
						</split>
					</split>
				</split>
				<split pos="right">
					<output> 1.9926242 </output>
				</split>
			</split>
			<split pos="right">
				<feature> 2 </feature>
				<threshold> 98.86692 </threshold>
				<split pos="left">
					<output> 0.8763717 </output>
				</split>
				<split pos="right">
					<output> 1.9616045 </output>
				</split>
			</split>
		</split>
	</tree>
	<tree id="2" weight="0.1">
		<split>
			<feature> 1 </feature>
			<threshold> 0.7 </threshold>
			<split pos="left">
				<feature> 2 </feature>
				<threshold> 950.6326 </threshold>
				<split pos="left">
					<feature> 1 </feature>
					<threshold> 0.428571 </threshold>
					<split pos="left">
						<feature> 2 </feature>
						<threshold> 10.141184 </threshold>
						<split pos="left">
							<output> 1.7166024 </output>
						</split>
						<split pos="right">
							<output> -1.0205609 </output>
						</split>
					</split>
					<split pos="right">
						<feature> 3 </feature>
						<threshold> 0.67390925 </threshold>
						<split pos="left">
							<feature> 2 </feature>
							<threshold> 853.0345 </threshold>
							<split pos="left">
								<feature> 1 </feature>
								<threshold> 0.434783 </threshold>
								<split pos="left">
									<output> 1.7854354 </output>
								</split>
								<split pos="right">
									<feature> 3 </feature>
									<threshold> 0.31394902 </threshold>
									<split pos="left">
										<output> 1.3698337 </output>
									</split>
									<split pos="right">
										<output> 1.6380982 </output>
									</split>
								</split>
							</split>
							<split pos="right">
								<output> 1.7275631 </output>
							</split>
						</split>
						<split pos="right">
							<output> 1.7308822 </output>
						</split>
					</split>
				</split>
				<split pos="right">
					<output> 1.7367221 </output>
				</split>
			</split>
			<split pos="right">
				<feature> 2 </feature>
				<threshold> 98.86692 </threshold>
				<split pos="left">
					<output> -1.745983 </output>
				</split>
				<split pos="right">
					<output> 1.7290814 </output>
				</split>
			</split>
		</split>
	</tree>
	<tree id="3" weight="0.1">
		<split>
			<feature> 1 </feature>
			<threshold> 0.7 </threshold>
			<split pos="left">
				<feature> 2 </feature>
				<threshold> 950.6326 </threshold>
				<split pos="left">
					<feature> 1 </feature>
					<threshold> 0.428571 </threshold>
					<split pos="left">
						<feature> 2 </feature>
						<threshold> 10.141184 </threshold>
						<split pos="left">
							<output> 1.5448018 </output>
						</split>
						<split pos="right">
							<feature> 8 </feature>
							<threshold> 0.0 </threshold>
							<split pos="left">
								<output> -1.3795664 </output>
							</split>
							<split pos="right">
								<output> 0.7972925 </output>
							</split>
						</split>
					</split>
					<split pos="right">
						<feature> 3 </feature>
						<threshold> 0.67390925 </threshold>
						<split pos="left">
							<feature> 2 </feature>
							<threshold> 853.0345 </threshold>
							<split pos="left">
								<feature> 1 </feature>
								<threshold> 0.434783 </threshold>
								<split pos="left">
									<output> 1.6227012 </output>
								</split>
								<split pos="right">
									<output> 1.2803036 </output>
								</split>
							</split>
							<split pos="right">
								<output> 1.5553255 </output>
							</split>
						</split>
						<split pos="right">
							<output> 1.5613099 </output>
						</split>
					</split>
				</split>
				<split pos="right">
					<output> 1.5664145 </output>
				</split>
			</split>
			<split pos="right">
				<feature> 2 </feature>
				<threshold> 98.86692 </threshold>
				<split pos="left">
					<output> -1.4746466 </output>
				</split>
				<split pos="right">
					<output> 1.5542538 </output>
				</split>
			</split>
		</split>
	</tree>
	<tree id="4" weight="0.1">
		<split>
			<feature> 1 </feature>
			<threshold> 0.625 </threshold>
			<split pos="left">
				<feature> 2 </feature>
				<threshold> 950.6326 </threshold>
				<split pos="left">
					<feature> 2 </feature>
					<threshold> 10.141184 </threshold>
					<split pos="left">
						<output> 1.4066489 </output>
					</split>
					<split pos="right">
						<feature> 1 </feature>
						<threshold> 0.428571 </threshold>
						<split pos="left">
							<feature> 8 </feature>
							<threshold> 0.0 </threshold>
							<split pos="left">
								<output> -1.2418302 </output>
							</split>
							<split pos="right">
								<feature> 2 </feature>
								<threshold> 223.0828 </threshold>
								<split pos="left">
									<output> -0.2231979 </output>
								</split>
								<split pos="right">
									<output> 1.4375328 </output>
								</split>
							</split>
						</split>
						<split pos="right">
							<output> 1.1314788 </output>
						</split>
					</split>
				</split>
				<split pos="right">
					<output> 1.4352584 </output>
				</split>
			</split>
			<split pos="right">
				<feature> 2 </feature>
				<threshold> 89.99435 </threshold>
				<split pos="left">
					<output> 0.44206968 </output>
				</split>
				<split pos="right">
					<feature> 3 </feature>
					<threshold> 0.0 </threshold>
					<split pos="left">
						<output> 1.4716544 </output>
					</split>
					<split pos="right">
						<feature> 2 </feature>
						<threshold> 214.21024 </threshold>
						<split pos="left">
							<output> 1.4367245 </output>
						</split>
						<split pos="right">
							<output> 1.3821937 </output>
						</split>
					</split>
				</split>
			</split>
		</split>
	</tree>
	<tree id="5" weight="0.1">
		<split>
			<feature> 1 </feature>
			<threshold> 0.714286 </threshold>
			<split pos="left">
				<feature> 2 </feature>
				<threshold> 950.6326 </threshold>
				<split pos="left">
					<feature> 1 </feature>
					<threshold> 0.428571 </threshold>
					<split pos="left">
						<feature> 2 </feature>
						<threshold> 10.141184 </threshold>
						<split pos="left">
							<output> 1.312412 </output>
						</split>
						<split pos="right">
							<feature> 8 </feature>
							<threshold> 0.0 </threshold>
							<split pos="left">
								<output> -1.1298817 </output>
							</split>
							<split pos="right">
								<feature> 2 </feature>
								<threshold> 223.0828 </threshold>
								<split pos="left">
									<output> -0.22899845 </output>
								</split>
								<split pos="right">
									<output> 1.2863382 </output>
								</split>
							</split>
						</split>
					</split>
					<split pos="right">
						<feature> 3 </feature>
						<threshold> 0.67390925 </threshold>
						<split pos="left">
							<feature> 2 </feature>
							<threshold> 853.0345 </threshold>
							<split pos="left">
								<output> 1.0500404 </output>
							</split>
							<split pos="right">
								<output> 1.3326943 </output>
							</split>
						</split>
						<split pos="right">
							<output> 1.3420864 </output>
						</split>
					</split>
				</split>
				<split pos="right">
					<output> 1.3489482 </output>
				</split>
			</split>
			<split pos="right">
				<feature> 2 </feature>
				<threshold> 98.86692 </threshold>
				<split pos="left">
					<output> -1.2306651 </output>
				</split>
				<split pos="right">
					<output> 1.345556 </output>
				</split>
			</split>
		</split>
	</tree>
	<tree id="6" weight="0.1">
		<split>
			<feature> 1 </feature>
			<threshold> 0.714286 </threshold>
			<split pos="left">
				<feature> 2 </feature>
				<threshold> 950.6326 </threshold>
				<split pos="left">
					<feature> 1 </feature>
					<threshold> 0.428571 </threshold>
					<split pos="left">
						<feature> 2 </feature>
						<threshold> 10.141184 </threshold>
						<split pos="left">
							<output> 1.2447107 </output>
						</split>
						<split pos="right">
							<feature> 8 </feature>
							<threshold> 0.0 </threshold>
							<split pos="left">
								<output> -1.0461112 </output>
							</split>
							<split pos="right">
								<feature> 2 </feature>
								<threshold> 223.0828 </threshold>
								<split pos="left">
									<output> -0.19254625 </output>
								</split>
								<split pos="right">
									<output> 1.1702727 </output>
								</split>
							</split>
						</split>
					</split>
					<split pos="right">
						<feature> 3 </feature>
						<threshold> 0.67390925 </threshold>
						<split pos="left">
							<feature> 2 </feature>
							<threshold> 853.0345 </threshold>
							<split pos="left">
								<output> 0.9631168 </output>
							</split>
							<split pos="right">
								<output> 1.2639592 </output>
							</split>
						</split>
						<split pos="right">
							<output> 1.2787781 </output>
						</split>
					</split>
				</split>
				<split pos="right">
					<output> 1.289773 </output>
				</split>
			</split>
			<split pos="right">
				<feature> 2 </feature>
				<threshold> 98.86692 </threshold>
				<split pos="left">
					<output> -1.1114912 </output>
				</split>
				<split pos="right">
					<output> 1.2805938 </output>
				</split>
			</split>
		</split>
	</tree>
	<tree id="7" weight="0.1">
		<split>
			<feature> 1 </feature>
			<threshold> 0.714286 </threshold>
			<split pos="left">
				<feature> 2 </feature>
				<threshold> 950.6326 </threshold>
				<split pos="left">
					<feature> 1 </feature>
					<threshold> 0.4 </threshold>
					<split pos="left">
						<feature> 2 </feature>
						<threshold> 10.141184 </threshold>
						<split pos="left">
							<output> 1.1946088 </output>
						</split>
						<split pos="right">
							<feature> 8 </feature>
							<threshold> 0.0 </threshold>
							<split pos="left">
								<output> -0.99902123 </output>
							</split>
							<split pos="right">
								<feature> 2 </feature>
								<threshold> 223.0828 </threshold>
								<split pos="left">
									<output> -0.3722721 </output>
								</split>
								<split pos="right">
									<output> 1.0811372 </output>
								</split>
							</split>
						</split>
					</split>
					<split pos="right">
						<feature> 3 </feature>
						<threshold> 0.67390925 </threshold>
						<split pos="left">
							<feature> 2 </feature>
							<threshold> 853.0345 </threshold>
							<split pos="left">
								<feature> 8 </feature>
								<threshold> 0.0 </threshold>
								<split pos="left">
									<output> 0.698427 </output>
								</split>
								<split pos="right">
									<output> 1.0194753 </output>
								</split>
							</split>
							<split pos="right">
								<output> 1.2138125 </output>
							</split>
						</split>
						<split pos="right">
							<output> 1.2332315 </output>
						</split>
					</split>
				</split>
				<split pos="right">
					<output> 1.2485594 </output>
				</split>
			</split>
			<split pos="right">
				<output> 1.2024989 </output>
			</split>
		</split>
	</tree>
	<tree id="8" weight="0.1">
		<split>
			<feature> 1 </feature>
			<threshold> 0.714286 </threshold>
			<split pos="left">
				<feature> 2 </feature>
				<threshold> 950.6326 </threshold>
				<split pos="left">
					<feature> 1 </feature>
					<threshold> 0.4 </threshold>
					<split pos="left">
						<feature> 2 </feature>
						<threshold> 10.141184 </threshold>
						<split pos="left">
							<output> 1.1566597 </output>
						</split>
						<split pos="right">
							<feature> 8 </feature>
							<threshold> 0.0 </threshold>
							<split pos="left">
								<output> -0.93261635 </output>
							</split>
							<split pos="right">
								<feature> 2 </feature>
								<threshold> 223.0828 </threshold>
								<split pos="left">
									<output> -0.3059459 </output>
								</split>
								<split pos="right">
									<output> 1.0057837 </output>
								</split>
							</split>
						</split>
					</split>
					<split pos="right">
						<feature> 3 </feature>
						<threshold> 0.67390925 </threshold>
						<split pos="left">
							<feature> 2 </feature>
							<threshold> 853.0345 </threshold>
							<split pos="left">
								<feature> 8 </feature>
								<threshold> 0.0 </threshold>
								<split pos="left">
									<output> 0.52610534 </output>
								</split>
								<split pos="right">
									<output> 0.9616193 </output>
								</split>
							</split>
							<split pos="right">
								<output> 1.1761124 </output>
							</split>
						</split>
						<split pos="right">
							<output> 1.1996107 </output>
						</split>
					</split>
				</split>
				<split pos="right">
					<output> 1.2193173 </output>
				</split>
			</split>
			<split pos="right">
				<output> 1.1648208 </output>
			</split>
		</split>
	</tree>
	<tree id="9" weight="0.1">
		<split>
			<feature> 1 </feature>
			<threshold> 0.714286 </threshold>
			<split pos="left">
				<feature> 2 </feature>
				<threshold> 950.6326 </threshold>
				<split pos="left">
					<feature> 1 </feature>
					<threshold> 0.4 </threshold>
					<split pos="left">
						<feature> 2 </feature>
						<threshold> 10.141184 </threshold>
						<split pos="left">
							<output> 1.1275891 </output>
						</split>
						<split pos="right">
							<feature> 8 </feature>
							<threshold> 0.0 </threshold>
							<split pos="left">
								<feature> 2 </feature>
								<threshold> 205.33768 </threshold>
								<split pos="left">
									<output> -1.199028 </output>
								</split>
								<split pos="right">
									<feature> 7 </feature>
									<threshold> 0.0 </threshold>
									<split pos="left">
										<output> -0.62486696 </output>
									</split>
									<split pos="right">
										<output> 0.642329 </output>
									</split>
								</split>
							</split>
							<split pos="right">
								<feature> 2 </feature>
								<threshold> 223.0828 </threshold>
								<split pos="left">
									<output> -0.25385666 </output>
								</split>
								<split pos="right">
									<output> 0.9384747 </output>
								</split>
							</split>
						</split>
					</split>
					<split pos="right">
						<feature> 3 </feature>
						<threshold> 0.67390925 </threshold>
						<split pos="left">
							<output> 0.76298016 </output>
						</split>
						<split pos="right">
							<output> 1.1748462 </output>
						</split>
					</split>
				</split>
				<split pos="right">
					<output> 1.1982678 </output>
				</split>
			</split>
			<split pos="right">
				<output> 1.1318145 </output>
			</split>
		</split>
	</tree>
	<tree id="10" weight="0.1">
		<split>
			<feature> 1 </feature>
			<threshold> 0.714286 </threshold>
			<split pos="left">
				<feature> 2 </feature>
				<threshold> 950.6326 </threshold>
				<split pos="left">
					<feature> 1 </feature>
					<threshold> 0.4 </threshold>
					<split pos="left">
						<feature> 2 </feature>
						<threshold> 10.141184 </threshold>
						<split pos="left">
							<output> 1.1017606 </output>
						</split>
						<split pos="right">
							<feature> 2 </feature>
							<threshold> 205.33768 </threshold>
							<split pos="left">
								<output> -1.043603 </output>
							</split>
							<split pos="right">
								<feature> 8 </feature>
								<threshold> 0.0 </threshold>
								<split pos="left">
									<feature> 7 </feature>
									<threshold> 0.0 </threshold>
									<split pos="left">
										<feature> 3 </feature>
										<threshold> 0.37890425 </threshold>
										<split pos="left">
											<output> -0.81240225 </output>
										</split>
										<split pos="right">
											<output> 0.9147368 </output>
										</split>
									</split>
									<split pos="right">
										<output> 0.8971682 </output>
									</split>
								</split>
								<split pos="right">
									<output> 0.8643189 </output>
								</split>
							</split>
						</split>
					</split>
					<split pos="right">
						<feature> 2 </feature>
						<threshold> 853.0345 </threshold>
						<split pos="left">
							<output> 0.7060844 </output>
						</split>
						<split pos="right">
							<output> 1.1336231 </output>
						</split>
					</split>
				</split>
				<split pos="right">
					<output> 1.186465 </output>
				</split>
			</split>
			<split pos="right">
				<output> 1.1105804 </output>
			</split>
		</split>
	</tree>
	<tree id="11" weight="0.1">
		<split>
			<feature> 1 </feature>
			<threshold> 0.714286 </threshold>
			<split pos="left">
				<feature> 2 </feature>
				<threshold> 950.6326 </threshold>
				<split pos="left">
					<feature> 1 </feature>
					<threshold> 0.4 </threshold>
					<split pos="left">
						<feature> 2 </feature>
						<threshold> 10.141184 </threshold>
						<split pos="left">
							<output> 1.082891 </output>
						</split>
						<split pos="right">
							<feature> 2 </feature>
							<threshold> 205.33768 </threshold>
							<split pos="left">
								<output> -1.0049938 </output>
							</split>
							<split pos="right">
								<feature> 7 </feature>
								<threshold> 0.0 </threshold>
								<split pos="left">
									<output> -0.59298164 </output>
								</split>
								<split pos="right">
									<feature> 2 </feature>
									<threshold> 764.3089 </threshold>
									<split pos="left">
										<feature> 2 </feature>
										<threshold> 209.77396 </threshold>
										<split pos="left">
											<output> 1.4622227 </output>
										</split>
										<split pos="right">
											<feature> 3 </feature>
											<threshold> 0.010825824 </threshold>
											<split pos="left">
												<output> 1.2755296 </output>
											</split>
											<split pos="right">
												<output> 0.70846003 </output>
											</split>
										</split>
									</split>
									<split pos="right">
										<output> 1.0841751 </output>
									</split>
								</split>
							</split>
						</split>
					</split>
					<split pos="right">
						<output> 0.66739917 </output>
					</split>
				</split>
				<split pos="right">
					<output> 1.1781249 </output>
				</split>
			</split>
			<split pos="right">
				<output> 1.080177 </output>
			</split>
		</split>
	</tree>
	<tree id="12" weight="0.1">
		<split>
			<feature> 1 </feature>
			<threshold> 0.714286 </threshold>
			<split pos="left">
				<feature> 2 </feature>
				<threshold> 950.6326 </threshold>
				<split pos="left">
					<feature> 1 </feature>
					<threshold> 0.4 </threshold>
					<split pos="left">
						<feature> 2 </feature>
						<threshold> 10.141184 </threshold>
						<split pos="left">
							<output> 1.0682186 </output>
						</split>
						<split pos="right">
							<feature> 2 </feature>
							<threshold> 205.33768 </threshold>
							<split pos="left">
								<output> -0.9729693 </output>
							</split>
							<split pos="right">
								<feature> 8 </feature>
								<threshold> 0.0 </threshold>
								<split pos="left">
									<feature> 7 </feature>
									<threshold> 0.0 </threshold>
									<split pos="left">
										<output> -0.52773154 </output>
									</split>
									<split pos="right">
										<output> 0.78330356 </output>
									</split>
								</split>
								<split pos="right">
									<output> 0.7375792 </output>
								</split>
							</split>
						</split>
					</split>
					<split pos="right">
						<feature> 1 </feature>
						<threshold> 0.416667 </threshold>
						<split pos="left">
							<output> 1.335213 </output>
						</split>
						<split pos="right">
							<feature> 8 </feature>
							<threshold> 0.0 </threshold>
							<split pos="left">
								<output> 0.08761134 </output>
							</split>
							<split pos="right">
								<output> 0.81090003 </output>
							</split>
						</split>
					</split>
				</split>
				<split pos="right">
					<output> 1.1713029 </output>
				</split>
			</split>
			<split pos="right">
				<output> 1.0537243 </output>
			</split>
		</split>
	</tree>
	<tree id="13" weight="0.1">
		<split>
			<feature> 1 </feature>
			<threshold> 0.714286 </threshold>
			<split pos="left">
				<feature> 2 </feature>
				<threshold> 950.6326 </threshold>
				<split pos="left">
					<feature> 1 </feature>
					<threshold> 0.4 </threshold>
					<split pos="left">
						<feature> 2 </feature>
						<threshold> 10.141184 </threshold>
						<split pos="left">
							<output> 1.0567665 </output>
						</split>
						<split pos="right">
							<feature> 2 </feature>
							<threshold> 205.33768 </threshold>
							<split pos="left">
								<output> -0.9481702 </output>
							</split>
							<split pos="right">
								<feature> 7 </feature>
								<threshold> 0.0 </threshold>
								<split pos="left">
									<feature> 2 </feature>
									<threshold> 223.0828 </threshold>
									<split pos="left">
										<output> 0.81730247 </output>
									</split>
									<split pos="right">
										<output> -0.8702586 </output>
									</split>
								</split>
								<split pos="right">
									<feature> 2 </feature>
									<threshold> 209.77396 </threshold>
									<split pos="left">
										<output> 1.3162855 </output>
									</split>
									<split pos="right">
										<feature> 2 </feature>
										<threshold> 764.3089 </threshold>
										<split pos="left">
											<output> 0.6321097 </output>
										</split>
										<split pos="right">
											<output> 1.0405321 </output>
										</split>
									</split>
								</split>
							</split>
						</split>
					</split>
					<split pos="right">
						<output> 0.6058514 </output>
					</split>
				</split>
				<split pos="right">
					<output> 1.1620646 </output>
				</split>
			</split>
			<split pos="right">
				<output> 1.0289052 </output>
			</split>
		</split>
	</tree>
	<tree id="14" weight="0.1">
		<split>
			<feature> 1 </feature>
			<threshold> 0.714286 </threshold>
			<split pos="left">
				<feature> 2 </feature>
				<threshold> 950.6326 </threshold>
				<split pos="left">
					<feature> 1 </feature>
					<threshold> 0.4 </threshold>
					<split pos="left">
						<feature> 2 </feature>
						<threshold> 10.141184 </threshold>
						<split pos="left">
							<output> 1.0478257 </output>
						</split>
						<split pos="right">
							<feature> 2 </feature>
							<threshold> 205.33768 </threshold>
							<split pos="left">
								<output> -0.9013349 </output>
							</split>
							<split pos="right">
								<feature> 7 </feature>
								<threshold> 0.0 </threshold>
								<split pos="left">
									<output> -0.37745926 </output>
								</split>
								<split pos="right">
									<feature> 2 </feature>
									<threshold> 209.77396 </threshold>
									<split pos="left">
										<output> 1.2288016 </output>
									</split>
									<split pos="right">
										<feature> 2 </feature>
										<threshold> 764.3089 </threshold>
										<split pos="left">
											<output> 0.5750739 </output>
										</split>
										<split pos="right">
											<output> 1.0139302 </output>
										</split>
									</split>
								</split>
							</split>
						</split>
					</split>
					<split pos="right">
						<feature> 1 </feature>
						<threshold> 0.416667 </threshold>
						<split pos="left">
							<output> 1.2082273 </output>
						</split>
						<split pos="right">
							<output> 0.50886565 </output>
						</split>
					</split>
				</split>
				<split pos="right">
					<output> 1.1583999 </output>
				</split>
			</split>
			<split pos="right">
				<output> 1.0060495 </output>
			</split>
		</split>
	</tree>
	<tree id="15" weight="0.1">
		<split>
			<feature> 1 </feature>
			<threshold> 0.714286 </threshold>
			<split pos="left">
				<feature> 2 </feature>
				<threshold> 950.6326 </threshold>
				<split pos="left">
					<feature> 1 </feature>
					<threshold> 0.4 </threshold>
					<split pos="left">
						<feature> 2 </feature>
						<threshold> 10.141184 </threshold>
						<split pos="left">
							<output> 1.0409709 </output>
						</split>
						<split pos="right">
							<feature> 2 </feature>
							<threshold> 205.33768 </threshold>
							<split pos="left">
								<output> -0.8761349 </output>
							</split>
							<split pos="right">
								<feature> 7 </feature>
								<threshold> 0.0 </threshold>
								<split pos="left">
									<feature> 2 </feature>
									<threshold> 223.0828 </threshold>
									<split pos="left">
										<output> 0.81217396 </output>
									</split>
									<split pos="right">
										<output> -0.89391065 </output>
									</split>
								</split>
								<split pos="right">
									<feature> 2 </feature>
									<threshold> 764.3089 </threshold>
									<split pos="left">
										<feature> 2 </feature>
										<threshold> 209.77396 </threshold>
										<split pos="left">
											<output> 1.1774826 </output>
										</split>
										<split pos="right">
											<output> 0.57532793 </output>
										</split>
									</split>
									<split pos="right">
										<output> 1.0235999 </output>
									</split>
								</split>
							</split>
						</split>
					</split>
					<split pos="right">
						<output> 0.52092683 </output>
					</split>
				</split>
				<split pos="right">
					<output> 1.1533359 </output>
				</split>
			</split>
			<split pos="right">
				<output> 0.98311776 </output>
			</split>
		</split>
	</tree>
	<tree id="16" weight="0.1">
		<split>
			<feature> 1 </feature>
			<threshold> 0.714286 </threshold>
			<split pos="left">
				<feature> 2 </feature>
				<threshold> 950.6326 </threshold>
				<split pos="left">
					<feature> 8 </feature>
					<threshold> 0.0 </threshold>
					<split pos="left">
						<feature> 1 </feature>
						<threshold> 0.666667 </threshold>
						<split pos="left">
							<feature> 2 </feature>
							<threshold> 10.141184 </threshold>
							<split pos="left">
								<output> 1.0357246 </output>
							</split>
							<split pos="right">
								<feature> 2 </feature>
								<threshold> 205.33768 </threshold>
								<split pos="left">
									<output> -0.9085705 </output>
								</split>
								<split pos="right">
									<feature> 2 </feature>
									<threshold> 223.0828 </threshold>
									<split pos="left">
										<output> 0.7480491 </output>
									</split>
									<split pos="right">
										<output> -0.3104086 </output>
									</split>
								</split>
							</split>
						</split>
						<split pos="right">
							<output> 1.0975623 </output>
						</split>
					</split>
					<split pos="right">
						<feature> 2 </feature>
						<threshold> 223.0828 </threshold>
						<split pos="left">
							<feature> 1 </feature>
							<threshold> 0.277778 </threshold>
							<split pos="left">
								<output> -0.54441416 </output>
							</split>
							<split pos="right">
								<output> 0.59951055 </output>
							</split>
						</split>
						<split pos="right">
							<output> 0.7477029 </output>
						</split>
					</split>
				</split>
				<split pos="right">
					<output> 1.150757 </output>
				</split>
			</split>
			<split pos="right">
				<output> 0.9607077 </output>
			</split>
		</split>
	</tree>
	<tree id="17" weight="0.1">
		<split>
			<feature> 1 </feature>
			<threshold> 0.608696 </threshold>
			<split pos="left">
				<feature> 2 </feature>
				<threshold> 950.6326 </threshold>
				<split pos="left">
					<feature> 8 </feature>
					<threshold> 0.0 </threshold>
					<split pos="left">
						<feature> 2 </feature>
						<threshold> 10.141184 </threshold>
						<split pos="left">
							<output> 1.0317029 </output>
						</split>
						<split pos="right">
							<feature> 2 </feature>
							<threshold> 23.450045 </threshold>
							<split pos="left">
								<output> 1.7273456 </output>
							</split>
							<split pos="right">
								<feature> 2 </feature>
								<threshold> 187.59256 </threshold>
								<split pos="left">
									<output> -1.0049323 </output>
								</split>
								<split pos="right">
									<feature> 7 </feature>
									<threshold> 0.0 </threshold>
									<split pos="left">
										<output> -0.34718433 </output>
									</split>
									<split pos="right">
										<output> 0.51767474 </output>
									</split>
								</split>
							</split>
						</split>
					</split>
					<split pos="right">
						<feature> 2 </feature>
						<threshold> 764.3089 </threshold>
						<split pos="left">
							<feature> 2 </feature>
							<threshold> 223.0828 </threshold>
							<split pos="left">
								<output> 0.12616464 </output>
							</split>
							<split pos="right">
								<output> 0.6595383 </output>
							</split>
						</split>
						<split pos="right">
							<output> 1.02735 </output>
						</split>
					</split>
				</split>
				<split pos="right">
					<output> 1.1406299 </output>
				</split>
			</split>
			<split pos="right">
				<output> 0.8717405 </output>
			</split>
		</split>
	</tree>
	<tree id="18" weight="0.1">
		<split>
			<feature> 1 </feature>
			<threshold> 0.608696 </threshold>
			<split pos="left">
				<feature> 2 </feature>
				<threshold> 950.6326 </threshold>
				<split pos="left">
					<feature> 8 </feature>
					<threshold> 0.0 </threshold>
					<split pos="left">
						<feature> 2 </feature>
						<threshold> 23.450045 </threshold>
						<split pos="left">
							<output> 1.5260291 </output>
						</split>
						<split pos="right">
							<feature> 2 </feature>
							<threshold> 183.15628 </threshold>
							<split pos="left">
								<output> -1.031316 </output>
							</split>
							<split pos="right">
								<feature> 7 </feature>
								<threshold> 0.0 </threshold>
								<split pos="left">
									<feature> 3 </feature>
									<threshold> 0.37890425 </threshold>
									<split pos="left">
										<output> -0.5340135 </output>
									</split>
									<split pos="right">
										<output> 0.7233103 </output>
									</split>
								</split>
								<split pos="right">
									<output> 0.4609349 </output>
								</split>
							</split>
						</split>
					</split>
					<split pos="right">
						<feature> 2 </feature>
						<threshold> 764.3089 </threshold>
						<split pos="left">
							<feature> 2 </feature>
							<threshold> 223.0828 </threshold>
							<split pos="left">
								<output> 0.09390474 </output>
							</split>
							<split pos="right">
								<output> 0.6343931 </output>
							</split>
						</split>
						<split pos="right">
							<output> 1.0156642 </output>
						</split>
					</split>
				</split>
				<split pos="right">
					<output> 1.1326308 </output>
				</split>
			</split>
			<split pos="right">
				<output> 0.8248355 </output>
			</split>
		</split>
	</tree>
	<tree id="19" weight="0.1">
		<split>
			<feature> 3 </feature>
			<threshold> 0.0 </threshold>
			<split pos="left">
				<output> 1.1556232 </output>
			</split>
			<split pos="right">
				<feature> 2 </feature>
				<threshold> 950.6326 </threshold>
				<split pos="left">
					<feature> 1 </feature>
					<threshold> 0.608696 </threshold>
					<split pos="left">
						<feature> 8 </feature>
						<threshold> 0.0 </threshold>
						<split pos="left">
							<feature> 2 </feature>
							<threshold> 23.450045 </threshold>
							<split pos="left">
								<output> 1.290413 </output>
							</split>
							<split pos="right">
								<feature> 2 </feature>
								<threshold> 183.15628 </threshold>
								<split pos="left">
									<output> -0.9965867 </output>
								</split>
								<split pos="right">
									<feature> 7 </feature>
									<threshold> 0.0 </threshold>
									<split pos="left">
										<output> -0.29425597 </output>
									</split>
									<split pos="right">
										<output> 0.4830321 </output>
									</split>
								</split>
							</split>
						</split>
						<split pos="right">
							<feature> 2 </feature>
							<threshold> 764.3089 </threshold>
							<split pos="left">
								<feature> 4 </feature>
								<threshold> 0.0 </threshold>
								<split pos="left">
									<output> -0.07911967 </output>
								</split>
								<split pos="right">
									<output> 0.70406115 </output>
								</split>
							</split>
							<split pos="right">
								<output> 1.0132878 </output>
							</split>
						</split>
					</split>
					<split pos="right">
						<output> 0.74236196 </output>
					</split>
				</split>
				<split pos="right">
					<output> 1.1061504 </output>
				</split>
			</split>
		</split>
	</tree>
	<tree id="20" weight="0.1">
		<split>
			<feature> 3 </feature>
			<threshold> 0.0 </threshold>
			<split pos="left">
				<output> 1.150875 </output>
			</split>
			<split pos="right">
				<feature> 2 </feature>
				<threshold> 950.6326 </threshold>
				<split pos="left">
					<feature> 1 </feature>
					<threshold> 0.608696 </threshold>
					<split pos="left">
						<feature> 1 </feature>
						<threshold> 0.375 </threshold>
						<split pos="left">
							<feature> 2 </feature>
							<threshold> 23.450045 </threshold>
							<split pos="left">
								<output> 1.2777028 </output>
							</split>
							<split pos="right">
								<feature> 2 </feature>
								<threshold> 205.33768 </threshold>
								<split pos="left">
									<output> -0.9594263 </output>
								</split>
								<split pos="right">
									<feature> 7 </feature>
									<threshold> 0.0 </threshold>
									<split pos="left">
										<feature> 2 </feature>
										<threshold> 223.0828 </threshold>
										<split pos="left">
											<output> 0.69365704 </output>
										</split>
										<split pos="right">
											<output> -0.7174859 </output>
										</split>
									</split>
									<split pos="right">
										<feature> 2 </feature>
										<threshold> 214.21024 </threshold>
										<split pos="left">
											<output> 0.97216725 </output>
										</split>
										<split pos="right">
											<output> 0.3956993 </output>
										</split>
									</split>
								</split>
							</split>
						</split>
						<split pos="right">
							<output> 0.3673607 </output>
						</split>
					</split>
					<split pos="right">
						<output> 0.7089224 </output>
					</split>
				</split>
				<split pos="right">
					<output> 1.0972122 </output>
				</split>
			</split>
		</split>
	</tree>
	<tree id="21" weight="0.1">
		<split>
			<feature> 3 </feature>
			<threshold> 0.0 </threshold>
			<split pos="left">
				<output> 1.1528631 </output>
			</split>
			<split pos="right">
				<feature> 2 </feature>
				<threshold> 950.6326 </threshold>
				<split pos="left">
					<feature> 1 </feature>
					<threshold> 0.608696 </threshold>
					<split pos="left">
						<feature> 1 </feature>
						<threshold> 0.230769 </threshold>
						<split pos="left">
							<feature> 2 </feature>
							<threshold> 10.141184 </threshold>
							<split pos="left">
								<output> 1.0291575 </output>
							</split>
							<split pos="right">
								<feature> 2 </feature>
								<threshold> 23.450045 </threshold>
								<split pos="left">
									<output> 1.2112026 </output>
								</split>
								<split pos="right">
									<feature> 2 </feature>
									<threshold> 209.77396 </threshold>
									<split pos="left">
										<output> -1.1180456 </output>
									</split>
									<split pos="right">
										<feature> 2 </feature>
										<threshold> 214.21024 </threshold>
										<split pos="left">
											<output> 1.0722938 </output>
										</split>
										<split pos="right">
											<output> -0.009421246 </output>
										</split>
									</split>
								</split>
							</split>
						</split>
						<split pos="right">
							<feature> 8 </feature>
							<threshold> 0.0 </threshold>
							<split pos="left">
								<output> 0.010749544 </output>
							</split>
							<split pos="right">
								<output> 0.511726 </output>
							</split>
						</split>
					</split>
					<split pos="right">
						<output> 0.67748004 </output>
					</split>
				</split>
				<split pos="right">
					<output> 1.0896596 </output>
				</split>
			</split>
		</split>
	</tree>
	<tree id="22" weight="0.1">
		<split>
			<feature> 1 </feature>
			<threshold> 0.608696 </threshold>
			<split pos="left">
				<feature> 2 </feature>
				<threshold> 950.6326 </threshold>
				<split pos="left">
					<feature> 2 </feature>
					<threshold> 10.141184 </threshold>
					<split pos="left">
						<output> 1.0295436 </output>
					</split>
					<split pos="right">
						<feature> 1 </feature>
						<threshold> 0.230769 </threshold>
						<split pos="left">
							<feature> 2 </feature>
							<threshold> 23.450045 </threshold>
							<split pos="left">
								<output> 1.1184403 </output>
							</split>
							<split pos="right">
								<feature> 2 </feature>
								<threshold> 209.77396 </threshold>
								<split pos="left">
									<output> -1.0941061 </output>
								</split>
								<split pos="right">
									<feature> 2 </feature>
									<threshold> 214.21024 </threshold>
									<split pos="left">
										<output> 1.0132393 </output>
									</split>
									<split pos="right">
										<feature> 3 </feature>
										<threshold> 0.37890425 </threshold>
										<split pos="left">
											<output> -0.21127951 </output>
										</split>
										<split pos="right">
											<output> 0.8748256 </output>
										</split>
									</split>
								</split>
							</split>
						</split>
						<split pos="right">
							<feature> 8 </feature>
							<threshold> 0.0 </threshold>
							<split pos="left">
								<output> 0.0049258047 </output>
							</split>
							<split pos="right">
								<output> 0.46048662 </output>
							</split>
						</split>
					</split>
				</split>
				<split pos="right">
					<output> 1.1025631 </output>
				</split>
			</split>
			<split pos="right">
				<output> 0.70804685 </output>
			</split>
		</split>
	</tree>
	<tree id="23" weight="0.1">
		<split>
			<feature> 3 </feature>
			<threshold> 0.0 </threshold>
			<split pos="left">
				<output> 1.1645848 </output>
			</split>
			<split pos="right">
				<feature> 2 </feature>
				<threshold> 950.6326 </threshold>
				<split pos="left">
					<feature> 1 </feature>
					<threshold> 0.608696 </threshold>
					<split pos="left">
						<feature> 2 </feature>
						<threshold> 23.450045 </threshold>
						<split pos="left">
							<output> 1.0762775 </output>
						</split>
						<split pos="right">
							<feature> 2 </feature>
							<threshold> 205.33768 </threshold>
							<split pos="left">
								<output> -0.6737066 </output>
							</split>
							<split pos="right">
								<feature> 8 </feature>
								<threshold> 0.0 </threshold>
								<split pos="left">
									<feature> 2 </feature>
									<threshold> 214.21024 </threshold>
									<split pos="left">
										<output> 0.8082776 </output>
									</split>
									<split pos="right">
										<feature> 3 </feature>
										<threshold> 0.010825824 </threshold>
										<split pos="left">
											<output> 0.7247547 </output>
										</split>
										<split pos="right">
											<feature> 1 </feature>
											<threshold> 0.454545 </threshold>
											<split pos="left">
												<output> -0.21396315 </output>
											</split>
											<split pos="right">
												<output> -1.5570369 </output>
											</split>
										</split>
									</split>
								</split>
								<split pos="right">
									<output> 0.5615449 </output>
								</split>
							</split>
						</split>
					</split>
					<split pos="right">
						<output> 0.6266085 </output>
					</split>
				</split>
				<split pos="right">
					<output> 1.0648822 </output>
				</split>
			</split>
		</split>
	</tree>
	<tree id="24" weight="0.1">
		<split>
			<feature> 3 </feature>
			<threshold> 0.0 </threshold>
			<split pos="left">
				<output> 1.160454 </output>
			</split>
			<split pos="right">
				<feature> 2 </feature>
				<threshold> 950.6326 </threshold>
				<split pos="left">
					<feature> 1 </feature>
					<threshold> 0.608696 </threshold>
					<split pos="left">
						<feature> 2 </feature>
						<threshold> 10.141184 </threshold>
						<split pos="left">
							<output> 1.0298014 </output>
						</split>
						<split pos="right">
							<feature> 1 </feature>
							<threshold> 0.230769 </threshold>
							<split pos="left">
								<feature> 2 </feature>
								<threshold> 23.450045 </threshold>
								<split pos="left">
									<output> 1.050417 </output>
								</split>
								<split pos="right">
									<feature> 2 </feature>
									<threshold> 209.77396 </threshold>
									<split pos="left">
										<output> -1.0743144 </output>
									</split>
									<split pos="right">
										<feature> 2 </feature>
										<threshold> 214.21024 </threshold>
										<split pos="left">
											<output> 0.95896083 </output>
										</split>
										<split pos="right">
											<output> -0.043144293 </output>
										</split>
									</split>
								</split>
							</split>
							<split pos="right">
								<feature> 8 </feature>
								<threshold> 0.0 </threshold>
								<split pos="left">
									<output> 0.033113394 </output>
								</split>
								<split pos="right">
									<output> 0.44322926 </output>
								</split>
							</split>
						</split>
					</split>
					<split pos="right">
						<output> 0.5892525 </output>
					</split>
				</split>
				<split pos="right">
					<output> 1.0512942 </output>
				</split>
			</split>
		</split>
	</tree>
	<tree id="25" weight="0.1">
		<split>
			<feature> 1 </feature>
			<threshold> 0.692308 </threshold>
			<split pos="left">
				<feature> 2 </feature>
				<threshold> 950.6326 </threshold>
				<split pos="left">
					<feature> 2 </feature>
					<threshold> 10.141184 </threshold>
					<split pos="left">
						<output> 1.0298654 </output>
					</split>
					<split pos="right">
						<feature> 8 </feature>
						<threshold> 0.0 </threshold>
						<split pos="left">
							<feature> 2 </feature>
							<threshold> 23.450045 </threshold>
							<split pos="left">
								<output> 0.94699794 </output>
							</split>
							<split pos="right">
								<feature> 2 </feature>
								<threshold> 205.33768 </threshold>
								<split pos="left">
									<output> -0.79272753 </output>
								</split>
								<split pos="right">
									<feature> 2 </feature>
									<threshold> 214.21024 </threshold>
									<split pos="left">
										<output> 0.6954467 </output>
									</split>
									<split pos="right">
										<output> -0.17722198 </output>
									</split>
								</split>
							</split>
						</split>
						<split pos="right">
							<feature> 2 </feature>
							<threshold> 764.3089 </threshold>
							<split pos="left">
								<feature> 2 </feature>
								<threshold> 280.75443 </threshold>
								<split pos="left">
									<output> 0.07322838 </output>
								</split>
								<split pos="right">
									<output> 0.6423925 </output>
								</split>
							</split>
							<split pos="right">
								<output> 1.0028805 </output>
							</split>
						</split>
					</split>
				</split>
				<split pos="right">
					<output> 1.0721853 </output>
				</split>
			</split>
			<split pos="right">
				<output> 0.68054724 </output>
			</split>
		</split>
	</tree>
	<tree id="26" weight="0.1">
		<split>
			<feature> 3 </feature>
			<threshold> 0.0 </threshold>
			<split pos="left">
				<output> 1.1617163 </output>
			</split>
			<split pos="right">
				<feature> 2 </feature>
				<threshold> 950.6326 </threshold>
				<split pos="left">
					<feature> 1 </feature>
					<threshold> 0.608696 </threshold>
					<split pos="left">
						<feature> 2 </feature>
						<threshold> 10.141184 </threshold>
						<split pos="left">
							<output> 1.0297357 </output>
						</split>
						<split pos="right">
							<feature> 1 </feature>
							<threshold> 0.230769 </threshold>
							<split pos="left">
								<feature> 2 </feature>
								<threshold> 23.450045 </threshold>
								<split pos="left">
									<output> 0.9510394 </output>
								</split>
								<split pos="right">
									<feature> 2 </feature>
									<threshold> 799.79913 </threshold>
									<split pos="left">
										<output> -0.50644624 </output>
									</split>
									<split pos="right">
										<output> 1.0243008 </output>
									</split>
								</split>
							</split>
							<split pos="right">
								<feature> 2 </feature>
								<threshold> 866.3433 </threshold>
								<split pos="left">
									<feature> 4 </feature>
									<threshold> 0.0 </threshold>
									<split pos="left">
										<output> -0.17458527 </output>
									</split>
									<split pos="right">
										<output> 0.53374666 </output>
									</split>
								</split>
								<split pos="right">
									<output> 0.9665813 </output>
								</split>
							</split>
						</split>
					</split>
					<split pos="right">
						<output> 0.5365355 </output>
					</split>
				</split>
				<split pos="right">
					<output> 1.0294759 </output>
				</split>
			</split>
		</split>
	</tree>
	<tree id="27" weight="0.1">
		<split>
			<feature> 1 </feature>
			<threshold> 0.692308 </threshold>
			<split pos="left">
				<feature> 2 </feature>
				<threshold> 950.6326 </threshold>
				<split pos="left">
					<feature> 2 </feature>
					<threshold> 10.141184 </threshold>
					<split pos="left">
						<output> 1.0293977 </output>
					</split>
					<split pos="right">
						<feature> 1 </feature>
						<threshold> 0.375 </threshold>
						<split pos="left">
							<feature> 2 </feature>
							<threshold> 205.33768 </threshold>
							<split pos="left">
								<output> -0.7074408 </output>
							</split>
							<split pos="right">
								<feature> 7 </feature>
								<threshold> 0.0 </threshold>
								<split pos="left">
									<feature> 2 </feature>
									<threshold> 223.0828 </threshold>
									<split pos="left">
										<output> 0.46860263 </output>
									</split>
									<split pos="right">
										<output> -0.7303897 </output>
									</split>
								</split>
								<split pos="right">
									<feature> 2 </feature>
									<threshold> 444.89676 </threshold>
									<split pos="left">
										<output> 0.23208237 </output>
									</split>
									<split pos="right">
										<output> 0.9369223 </output>
									</split>
								</split>
							</split>
						</split>
						<split pos="right">
							<feature> 2 </feature>
							<threshold> 853.0345 </threshold>
							<split pos="left">
								<output> 0.26324505 </output>
							</split>
							<split pos="right">
								<output> 1.062327 </output>
							</split>
						</split>
					</split>
				</split>
				<split pos="right">
					<output> 1.056863 </output>
				</split>
			</split>
			<split pos="right">
				<output> 0.6257859 </output>
			</split>
		</split>
	</tree>
	<tree id="28" weight="0.1">
		<split>
			<feature> 3 </feature>
			<threshold> 0.0 </threshold>
			<split pos="left">
				<output> 1.1568635 </output>
			</split>
			<split pos="right">
				<feature> 2 </feature>
				<threshold> 950.6326 </threshold>
				<split pos="left">
					<feature> 1 </feature>
					<threshold> 0.608696 </threshold>
					<split pos="left">
						<feature> 2 </feature>
						<threshold> 10.141184 </threshold>
						<split pos="left">
							<output> 1.0260391 </output>
						</split>
						<split pos="right">
							<feature> 2 </feature>
							<threshold> 205.33768 </threshold>
							<split pos="left">
								<feature> 2 </feature>
								<threshold> 23.450045 </threshold>
								<split pos="left">
									<output> 0.78823763 </output>
								</split>
								<split pos="right">
									<output> -0.58731794 </output>
								</split>
							</split>
							<split pos="right">
								<feature> 8 </feature>
								<threshold> 0.0 </threshold>
								<split pos="left">
									<feature> 2 </feature>
									<threshold> 214.21024 </threshold>
									<split pos="left">
										<output> 0.61867917 </output>
									</split>
									<split pos="right">
										<feature> 3 </feature>
										<threshold> 0.010825824 </threshold>
										<split pos="left">
											<output> 0.9870817 </output>
										</split>
										<split pos="right">
											<output> -0.25156513 </output>
										</split>
									</split>
								</split>
								<split pos="right">
									<output> 0.4743224 </output>
								</split>
							</split>
						</split>
					</split>
					<split pos="right">
						<output> 0.48709527 </output>
					</split>
				</split>
				<split pos="right">
					<output> 1.009574 </output>
				</split>
			</split>
		</split>
	</tree>
	<tree id="29" weight="0.1">
		<split>
			<feature> 2 </feature>
			<threshold> 950.6326 </threshold>
			<split pos="left">
				<feature> 1 </feature>
				<threshold> 0.692308 </threshold>
				<split pos="left">
					<feature> 2 </feature>
					<threshold> 10.141184 </threshold>
					<split pos="left">
						<output> 1.0253764 </output>
					</split>
					<split pos="right">
						<feature> 1 </feature>
						<threshold> 0.230769 </threshold>
						<split pos="left">
							<feature> 2 </feature>
							<threshold> 23.450045 </threshold>
							<split pos="left">
								<output> 0.9304564 </output>
							</split>
							<split pos="right">
								<feature> 2 </feature>
								<threshold> 209.77396 </threshold>
								<split pos="left">
									<output> -1.0246872 </output>
								</split>
								<split pos="right">
									<feature> 2 </feature>
									<threshold> 214.21024 </threshold>
									<split pos="left">
										<output> 0.80446625 </output>
									</split>
									<split pos="right">
										<output> -0.013636862 </output>
									</split>
								</split>
							</split>
						</split>
						<split pos="right">
							<feature> 8 </feature>
							<threshold> 0.0 </threshold>
							<split pos="left">
								<output> -0.018913673 </output>
							</split>
							<split pos="right">
								<feature> 4 </feature>
								<threshold> 0.0 </threshold>
								<split pos="left">
									<output> -0.053936798 </output>
								</split>
								<split pos="right">
									<output> 0.7933237 </output>
								</split>
							</split>
						</split>
					</split>
				</split>
				<split pos="right">
					<output> 0.58004886 </output>
				</split>
			</split>
			<split pos="right">
				<output> 0.99850786 </output>
			</split>
		</split>
	</tree>
	<tree id="30" weight="0.1">
		<split>
			<feature> 3 </feature>
			<threshold> 0.0 </threshold>
			<split pos="left">
				<output> 1.1534431 </output>
			</split>
			<split pos="right">
				<feature> 2 </feature>
				<threshold> 950.6326 </threshold>
				<split pos="left">
					<feature> 1 </feature>
					<threshold> 0.608696 </threshold>
					<split pos="left">
						<feature> 2 </feature>
						<threshold> 10.141184 </threshold>
						<split pos="left">
							<output> 1.0250796 </output>
						</split>
						<split pos="right">
							<feature> 2 </feature>
							<threshold> 444.89676 </threshold>
							<split pos="left">
								<feature> 1 </feature>
								<threshold> 0.538462 </threshold>
								<split pos="left">
									<feature> 1 </feature>
									<threshold> 0.375 </threshold>
									<split pos="left">
										<feature> 2 </feature>
										<threshold> 23.450045 </threshold>
										<split pos="left">
											<output> 0.8899876 </output>
										</split>
										<split pos="right">
											<feature> 2 </feature>
											<threshold> 209.77396 </threshold>
											<split pos="left">
												<output> -0.7727418 </output>
											</split>
											<split pos="right">
												<output> 0.012465323 </output>
											</split>
										</split>
									</split>
									<split pos="right">
										<output> 0.37081647 </output>
									</split>
								</split>
								<split pos="right">
									<output> -1.1817634 </output>
								</split>
							</split>
							<split pos="right">
								<output> 0.57421327 </output>
							</split>
						</split>
					</split>
					<split pos="right">
						<output> 0.43790096 </output>
					</split>
				</split>
				<split pos="right">
					<output> 0.9867823 </output>
				</split>
			</split>
		</split>
	</tree>
	<tree id="31" weight="0.1">
		<split>
			<feature> 2 </feature>
			<threshold> 879.65216 </threshold>
			<split pos="left">
				<feature> 3 </feature>
				<threshold> 0.0 </threshold>
				<split pos="left">
					<output> 1.1399612 </output>
				</split>
				<split pos="right">
					<feature> 1 </feature>
					<threshold> 0.608696 </threshold>
					<split pos="left">
						<feature> 2 </feature>
						<threshold> 10.141184 </threshold>
						<split pos="left">
							<output> 1.0245641 </output>
						</split>
						<split pos="right">
							<feature> 2 </feature>
							<threshold> 444.89676 </threshold>
							<split pos="left">
								<feature> 1 </feature>
								<threshold> 0.538462 </threshold>
								<split pos="left">
									<feature> 1 </feature>
									<threshold> 0.375 </threshold>
									<split pos="left">
										<feature> 2 </feature>
										<threshold> 19.013758 </threshold>
										<split pos="left">
											<output> 1.1782521 </output>
										</split>
										<split pos="right">
											<feature> 3 </feature>
											<threshold> 0.14073566 </threshold>
											<split pos="left">
												<output> -0.6137744 </output>
											</split>
											<split pos="right">
												<output> -0.12401503 </output>
											</split>
										</split>
									</split>
									<split pos="right">
										<output> 0.34431496 </output>
									</split>
								</split>
								<split pos="right">
									<output> -1.0421253 </output>
								</split>
							</split>
							<split pos="right">
								<output> 0.5951081 </output>
							</split>
						</split>
					</split>
					<split pos="right">
						<output> 0.3885769 </output>
					</split>
				</split>
			</split>
			<split pos="right">
				<output> 0.98453975 </output>
			</split>
		</split>
	</tree>
	<tree id="32" weight="0.1">
		<split>
			<feature> 2 </feature>
			<threshold> 950.6326 </threshold>
			<split pos="left">
				<feature> 1 </feature>
				<threshold> 0.692308 </threshold>
				<split pos="left">
					<feature> 2 </feature>
					<threshold> 10.141184 </threshold>
					<split pos="left">
						<output> 1.0219543 </output>
					</split>
					<split pos="right">
						<feature> 8 </feature>
						<threshold> 0.0 </threshold>
						<split pos="left">
							<feature> 1 </feature>
							<threshold> 0.454545 </threshold>
							<split pos="left">
								<feature> 1 </feature>
								<threshold> 0.444444 </threshold>
								<split pos="left">
									<feature> 2 </feature>
									<threshold> 373.9163 </threshold>
									<split pos="left">
										<output> -0.41450757 </output>
									</split>
									<split pos="right">
										<output> 0.61560124 </output>
									</split>
								</split>
								<split pos="right">
									<output> 1.2338567 </output>
								</split>
							</split>
							<split pos="right">
								<output> -0.63174653 </output>
							</split>
						</split>
						<split pos="right">
							<feature> 2 </feature>
							<threshold> 764.3089 </threshold>
							<split pos="left">
								<feature> 2 </feature>
								<threshold> 143.22977 </threshold>
								<split pos="left">
									<output> -0.7047469 </output>
								</split>
								<split pos="right">
									<output> 0.47058415 </output>
								</split>
							</split>
							<split pos="right">
								<output> 0.9539212 </output>
							</split>
						</split>
					</split>
				</split>
				<split pos="right">
					<output> 0.49886853 </output>
				</split>
			</split>
			<split pos="right">
				<output> 0.96795744 </output>
			</split>
		</split>
	</tree>
	<tree id="33" weight="0.1">
		<split>
			<feature> 2 </feature>
			<threshold> 879.65216 </threshold>
			<split pos="left">
				<feature> 3 </feature>
				<threshold> 0.0 </threshold>
				<split pos="left">
					<output> 1.130863 </output>
				</split>
				<split pos="right">
					<feature> 1 </feature>
					<threshold> 0.608696 </threshold>
					<split pos="left">
						<feature> 2 </feature>
						<threshold> 10.141184 </threshold>
						<split pos="left">
							<output> 1.0198648 </output>
						</split>
						<split pos="right">
							<feature> 1 </feature>
							<threshold> 0.230769 </threshold>
							<split pos="left">
								<feature> 2 </feature>
								<threshold> 799.79913 </threshold>
								<split pos="left">
									<feature> 2 </feature>
									<threshold> 23.450045 </threshold>
									<split pos="left">
										<output> 0.9086138 </output>
									</split>
									<split pos="right">
										<feature> 2 </feature>
										<threshold> 209.77396 </threshold>
										<split pos="left">
											<output> -0.988738 </output>
										</split>
										<split pos="right">
											<output> 0.0814397 </output>
										</split>
									</split>
								</split>
								<split pos="right">
									<output> 1.0371614 </output>
								</split>
							</split>
							<split pos="right">
								<feature> 4 </feature>
								<threshold> 0.0 </threshold>
								<split pos="left">
									<output> -0.15446101 </output>
								</split>
								<split pos="right">
									<output> 0.47796708 </output>
								</split>
							</split>
						</split>
					</split>
					<split pos="right">
						<output> 0.3384279 </output>
					</split>
				</split>
			</split>
			<split pos="right">
				<output> 0.9629802 </output>
			</split>
		</split>
	</tree>
	<tree id="34" weight="0.1">
		<split>
			<feature> 2 </feature>
			<threshold> 950.6326 </threshold>
			<split pos="left">
				<feature> 1 </feature>
				<threshold> 0.571429 </threshold>
				<split pos="left">
					<feature> 2 </feature>
					<threshold> 10.141184 </threshold>
					<split pos="left">
						<output> 1.0193127 </output>
					</split>
					<split pos="right">
						<feature> 2 </feature>
						<threshold> 280.75443 </threshold>
						<split pos="left">
							<feature> 1 </feature>
							<threshold> 0.538462 </threshold>
							<split pos="left">
								<feature> 1 </feature>
								<threshold> 0.533333 </threshold>
								<split pos="left">
									<feature> 3 </feature>
									<threshold> 0.070367865 </threshold>
									<split pos="left">
										<output> -0.77867967 </output>
									</split>
									<split pos="right">
										<feature> 2 </feature>
										<threshold> 205.33768 </threshold>
										<split pos="left">
											<output> -0.44271198 </output>
										</split>
										<split pos="right">
											<output> 0.41534075 </output>
										</split>
									</split>
								</split>
								<split pos="right">
									<output> 0.6631256 </output>
								</split>
							</split>
							<split pos="right">
								<output> -1.3906188 </output>
							</split>
						</split>
						<split pos="right">
							<feature> 2 </feature>
							<threshold> 285.1907 </threshold>
							<split pos="left">
								<output> 1.3209563 </output>
							</split>
							<split pos="right">
								<output> 0.13581918 </output>
							</split>
						</split>
					</split>
				</split>
				<split pos="right">
					<output> 0.3947192 </output>
				</split>
			</split>
			<split pos="right">
				<output> 0.94364494 </output>
			</split>
		</split>
	</tree>
	<tree id="35" weight="0.1">
		<split>
			<feature> 2 </feature>
			<threshold> 879.65216 </threshold>
			<split pos="left">
				<feature> 3 </feature>
				<threshold> 0.0 </threshold>
				<split pos="left">
					<output> 1.1248636 </output>
				</split>
				<split pos="right">
					<feature> 8 </feature>
					<threshold> 0.0 </threshold>
					<split pos="left">
						<feature> 2 </feature>
						<threshold> 10.141184 </threshold>
						<split pos="left">
							<output> 1.0173331 </output>
						</split>
						<split pos="right">
							<feature> 1 </feature>
							<threshold> 0.75 </threshold>
							<split pos="left">
								<feature> 1 </feature>
								<threshold> 0.666667 </threshold>
								<split pos="left">
									<feature> 1 </feature>
									<threshold> 0.454545 </threshold>
									<split pos="left">
										<feature> 1 </feature>
										<threshold> 0.444444 </threshold>
										<split pos="left">
											<output> -0.2805534 </output>
										</split>
										<split pos="right">
											<output> 1.2093705 </output>
										</split>
									</split>
									<split pos="right">
										<output> -0.699396 </output>
									</split>
								</split>
								<split pos="right">
									<output> 0.672495 </output>
								</split>
							</split>
							<split pos="right">
								<output> -1.9560894 </output>
							</split>
						</split>
					</split>
					<split pos="right">
						<feature> 2 </feature>
						<threshold> 280.75443 </threshold>
						<split pos="left">
							<output> 0.1213138 </output>
						</split>
						<split pos="right">
							<output> 0.6232136 </output>
						</split>
					</split>
				</split>
			</split>
			<split pos="right">
				<output> 0.94416386 </output>
			</split>
		</split>
	</tree>
	<tree id="36" weight="0.1">
		<split>
			<feature> 2 </feature>
			<threshold> 879.65216 </threshold>
			<split pos="left">
				<feature> 3 </feature>
				<threshold> 0.0 </threshold>
				<split pos="left">
					<output> 1.1166065 </output>
				</split>
				<split pos="right">
					<feature> 8 </feature>
					<threshold> 0.0 </threshold>
					<split pos="left">
						<feature> 2 </feature>
						<threshold> 10.141184 </threshold>
						<split pos="left">
							<output> 1.0156163 </output>
						</split>
						<split pos="right">
							<feature> 1 </feature>
							<threshold> 0.75 </threshold>
							<split pos="left">
								<feature> 1 </feature>
								<threshold> 0.666667 </threshold>
								<split pos="left">
									<feature> 2 </feature>
									<threshold> 373.9163 </threshold>
									<split pos="left">
										<output> -0.40298727 </output>
									</split>
									<split pos="right">
										<output> 0.5106244 </output>
									</split>
								</split>
								<split pos="right">
									<output> 0.57135624 </output>
								</split>
							</split>
							<split pos="right">
								<output> -1.6131352 </output>
							</split>
						</split>
					</split>
					<split pos="right">
						<feature> 2 </feature>
						<threshold> 280.75443 </threshold>
						<split pos="left">
							<feature> 3 </feature>
							<threshold> 0.51152116 </threshold>
							<split pos="left">
								<output> -0.025862418 </output>
							</split>
							<split pos="right">
								<output> 1.0280925 </output>
							</split>
						</split>
						<split pos="right">
							<output> 0.58731854 </output>
						</split>
					</split>
				</split>
			</split>
			<split pos="right">
				<output> 0.9269342 </output>
			</split>
		</split>
	</tree>
	<tree id="37" weight="0.1">
		<split>
			<feature> 2 </feature>
			<threshold> 879.65216 </threshold>
			<split pos="left">
				<feature> 8 </feature>
				<threshold> 0.0 </threshold>
				<split pos="left">
					<feature> 2 </feature>
					<threshold> 10.141184 </threshold>
					<split pos="left">
						<output> 1.0139083 </output>
					</split>
					<split pos="right">
						<feature> 1 </feature>
						<threshold> 0.75 </threshold>
						<split pos="left">
							<feature> 1 </feature>
							<threshold> 0.666667 </threshold>
							<split pos="left">
								<feature> 2 </feature>
								<threshold> 360.60745 </threshold>
								<split pos="left">
									<feature> 2 </feature>
									<threshold> 23.450045 </threshold>
									<split pos="left">
										<output> 0.88325804 </output>
									</split>
									<split pos="right">
										<output> -0.46481723 </output>
									</split>
								</split>
								<split pos="right">
									<output> 0.45120627 </output>
								</split>
							</split>
							<split pos="right">
								<output> 0.5412633 </output>
							</split>
						</split>
						<split pos="right">
							<output> -1.395029 </output>
						</split>
					</split>
				</split>
				<split pos="right">
					<feature> 2 </feature>
					<threshold> 280.75443 </threshold>
					<split pos="left">
						<feature> 3 </feature>
						<threshold> 0.51152116 </threshold>
						<split pos="left">
							<output> 0.010627372 </output>
						</split>
						<split pos="right">
							<output> 1.0622445 </output>
						</split>
					</split>
					<split pos="right">
						<output> 0.5624067 </output>
					</split>
				</split>
			</split>
			<split pos="right">
				<output> 0.9181448 </output>
			</split>
		</split>
	</tree>
	<tree id="38" weight="0.1">
		<split>
			<feature> 2 </feature>
			<threshold> 950.6326 </threshold>
			<split pos="left">
				<feature> 1 </feature>
				<threshold> 0.571429 </threshold>
				<split pos="left">
					<feature> 1 </feature>
					<threshold> 0.230769 </threshold>
					<split pos="left">
						<feature> 2 </feature>
						<threshold> 10.141184 </threshold>
						<split pos="left">
							<output> 1.0131733 </output>
						</split>
						<split pos="right">
							<feature> 2 </feature>
							<threshold> 58.94034 </threshold>
							<split pos="left">
								<output> 0.5795428 </output>
							</split>
							<split pos="right">
								<feature> 2 </feature>
								<threshold> 209.77396 </threshold>
								<split pos="left">
									<output> -1.0835567 </output>
								</split>
								<split pos="right">
									<feature> 2 </feature>
									<threshold> 214.21024 </threshold>
									<split pos="left">
										<output> 0.7695189 </output>
									</split>
									<split pos="right">
										<output> -0.08202672 </output>
									</split>
								</split>
							</split>
						</split>
					</split>
					<split pos="right">
						<feature> 8 </feature>
						<threshold> 0.0 </threshold>
						<split pos="left">
							<output> 0.040713675 </output>
						</split>
						<split pos="right">
							<feature> 4 </feature>
							<threshold> 0.0 </threshold>
							<split pos="left">
								<output> -0.34253797 </output>
							</split>
							<split pos="right">
								<output> 0.70293665 </output>
							</split>
						</split>
					</split>
				</split>
				<split pos="right">
					<output> 0.3316595 </output>
				</split>
			</split>
			<split pos="right">
				<output> 0.8945724 </output>
			</split>
		</split>
	</tree>
	<tree id="39" weight="0.1">
		<split>
			<feature> 2 </feature>
			<threshold> 879.65216 </threshold>
			<split pos="left">
				<feature> 3 </feature>
				<threshold> 0.0 </threshold>
				<split pos="left">
					<output> 1.1099701 </output>
				</split>
				<split pos="right">
					<feature> 1 </feature>
					<threshold> 0.375 </threshold>
					<split pos="left">
						<feature> 2 </feature>
						<threshold> 325.11722 </threshold>
						<split pos="left">
							<feature> 2 </feature>
							<threshold> 10.141184 </threshold>
							<split pos="left">
								<output> 1.0124781 </output>
							</split>
							<split pos="right">
								<feature> 2 </feature>
								<threshold> 23.450045 </threshold>
								<split pos="left">
									<output> 0.9678886 </output>
								</split>
								<split pos="right">
									<feature> 3 </feature>
									<threshold> 0.37890425 </threshold>
									<split pos="left">
										<output> -0.54901165 </output>
									</split>
									<split pos="right">
										<output> 0.36155492 </output>
									</split>
								</split>
							</split>
						</split>
						<split pos="right">
							<output> 0.40934935 </output>
						</split>
					</split>
					<split pos="right">
						<feature> 2 </feature>
						<threshold> 41.19519 </threshold>
						<split pos="left">
							<output> -1.4279329 </output>
						</split>
						<split pos="right">
							<feature> 8 </feature>
							<threshold> 0.0 </threshold>
							<split pos="left">
								<output> -0.04750507 </output>
							</split>
							<split pos="right">
								<output> 0.48543397 </output>
							</split>
						</split>
					</split>
				</split>
			</split>
			<split pos="right">
				<output> 0.9006892 </output>
			</split>
		</split>
	</tree>
	<tree id="40" weight="0.1">
		<split>
			<feature> 2 </feature>
			<threshold> 879.65216 </threshold>
			<split pos="left">
				<feature> 3 </feature>
				<threshold> 0.0 </threshold>
				<split pos="left">
					<output> 1.1077775 </output>
				</split>
				<split pos="right">
					<feature> 8 </feature>
					<threshold> 0.0 </threshold>
					<split pos="left">
						<feature> 2 </feature>
						<threshold> 10.141184 </threshold>
						<split pos="left">
							<output> 1.0121964 </output>
						</split>
						<split pos="right">
							<feature> 1 </feature>
							<threshold> 0.75 </threshold>
							<split pos="left">
								<feature> 1 </feature>
								<threshold> 0.666667 </threshold>
								<split pos="left">
									<feature> 2 </feature>
									<threshold> 373.9163 </threshold>
									<split pos="left">
										<output> -0.37561804 </output>
									</split>
									<split pos="right">
										<output> 0.50249404 </output>
									</split>
								</split>
								<split pos="right">
									<output> 0.55537033 </output>
								</split>
							</split>
							<split pos="right">
								<output> -1.2582762 </output>
							</split>
						</split>
					</split>
					<split pos="right">
						<feature> 2 </feature>
						<threshold> 280.75443 </threshold>
						<split pos="left">
							<feature> 3 </feature>
							<threshold> 0.51152116 </threshold>
							<split pos="left">
								<output> -0.07604872 </output>
							</split>
							<split pos="right">
								<output> 1.0251017 </output>
							</split>
						</split>
						<split pos="right">
							<output> 0.50041056 </output>
						</split>
					</split>
				</split>
			</split>
			<split pos="right">
				<output> 0.8886479 </output>
			</split>
		</split>
	</tree>
	<tree id="41" weight="0.1">
		<split>
			<feature> 2 </feature>
			<threshold> 879.65216 </threshold>
			<split pos="left">
				<feature> 1 </feature>
				<threshold> 0.692308 </threshold>
				<split pos="left">
					<feature> 1 </feature>
					<threshold> 0.230769 </threshold>
					<split pos="left">
						<feature> 2 </feature>
						<threshold> 799.79913 </threshold>
						<split pos="left">
							<feature> 2 </feature>
							<threshold> 19.013758 </threshold>
							<split pos="left">
								<output> 1.1705487 </output>
							</split>
							<split pos="right">
								<feature> 3 </feature>
								<threshold> 0.37890425 </threshold>
								<split pos="left">
									<feature> 8 </feature>
									<threshold> 0.0 </threshold>
									<split pos="left">
										<output> -0.40767357 </output>
									</split>
									<split pos="right">
										<output> -0.99627876 </output>
									</split>
								</split>
								<split pos="right">
									<output> 0.383983 </output>
								</split>
							</split>
						</split>
						<split pos="right">
							<output> 1.0454838 </output>
						</split>
					</split>
					<split pos="right">
						<feature> 8 </feature>
						<threshold> 0.0 </threshold>
						<split pos="left">
							<output> 0.029044071 </output>
						</split>
						<split pos="right">
							<feature> 2 </feature>
							<threshold> 280.75443 </threshold>
							<split pos="left">
								<output> 0.061454978 </output>
							</split>
							<split pos="right">
								<output> 0.70732373 </output>
							</split>
						</split>
					</split>
				</split>
				<split pos="right">
					<output> 0.33064637 </output>
				</split>
			</split>
			<split pos="right">
				<output> 0.87993115 </output>
			</split>
		</split>
	</tree>
	<tree id="42" weight="0.1">
		<split>
			<feature> 2 </feature>
			<threshold> 879.65216 </threshold>
			<split pos="left">
				<feature> 1 </feature>
				<threshold> 0.692308 </threshold>
				<split pos="left">
					<feature> 1 </feature>
					<threshold> 0.230769 </threshold>
					<split pos="left">
						<feature> 2 </feature>
						<threshold> 799.79913 </threshold>
						<split pos="left">
							<feature> 2 </feature>
							<threshold> 23.450045 </threshold>
							<split pos="left">
								<output> 1.0054374 </output>
							</split>
							<split pos="right">
								<feature> 3 </feature>
								<threshold> 0.37890425 </threshold>
								<split pos="left">
									<feature> 8 </feature>
									<threshold> 0.0 </threshold>
									<split pos="left">
										<output> -0.41661817 </output>
									</split>
									<split pos="right">
										<output> -0.8986186 </output>
									</split>
								</split>
								<split pos="right">
									<output> 0.3309453 </output>
								</split>
							</split>
						</split>
						<split pos="right">
							<output> 1.0436772 </output>
						</split>
					</split>
					<split pos="right">
						<feature> 8 </feature>
						<threshold> 0.0 </threshold>
						<split pos="left">
							<output> 0.042747166 </output>
						</split>
						<split pos="right">
							<feature> 2 </feature>
							<threshold> 280.75443 </threshold>
							<split pos="left">
								<output> 0.04898392 </output>
							</split>
							<split pos="right">
								<output> 0.6659018 </output>
							</split>
						</split>
					</split>
				</split>
				<split pos="right">
					<output> 0.30835703 </output>
				</split>
			</split>
			<split pos="right">
				<output> 0.8637062 </output>
			</split>
		</split>
	</tree>
	<tree id="43" weight="0.1">
		<split>
			<feature> 2 </feature>
			<threshold> 950.6326 </threshold>
			<split pos="left">
				<feature> 1 </feature>
				<threshold> 0.692308 </threshold>
				<split pos="left">
					<feature> 2 </feature>
					<threshold> 280.75443 </threshold>
					<split pos="left">
						<feature> 3 </feature>
						<threshold> 0.070367865 </threshold>
						<split pos="left">
							<output> -0.67660713 </output>
						</split>
						<split pos="right">
							<feature> 1 </feature>
							<threshold> 0.6 </threshold>
							<split pos="left">
								<feature> 2 </feature>
								<threshold> 205.33768 </threshold>
								<split pos="left">
									<output> -0.34253788 </output>
								</split>
								<split pos="right">
									<output> 0.3542431 </output>
								</split>
							</split>
							<split pos="right">
								<output> 0.58825994 </output>
							</split>
						</split>
					</split>
					<split pos="right">
						<feature> 2 </feature>
						<threshold> 285.1907 </threshold>
						<split pos="left">
							<output> 1.2653439 </output>
						</split>
						<split pos="right">
							<feature> 7 </feature>
							<threshold> 0.0 </threshold>
							<split pos="left">
								<output> -0.44632146 </output>
							</split>
							<split pos="right">
								<feature> 2 </feature>
								<threshold> 444.89676 </threshold>
								<split pos="left">
									<output> -0.17086744 </output>
								</split>
								<split pos="right">
									<output> 0.8508065 </output>
								</split>
							</split>
						</split>
					</split>
				</split>
				<split pos="right">
					<output> 0.31050524 </output>
				</split>
			</split>
			<split pos="right">
				<output> 0.8260278 </output>
			</split>
		</split>
	</tree>
	<tree id="44" weight="0.1">
		<split>
			<feature> 2 </feature>
			<threshold> 950.6326 </threshold>
			<split pos="left">
				<feature> 3 </feature>
				<threshold> 0.0 </threshold>
				<split pos="left">
					<output> 1.103921 </output>
				</split>
				<split pos="right">
					<feature> 1 </feature>
					<threshold> 0.375 </threshold>
					<split pos="left">
						<feature> 2 </feature>
						<threshold> 409.40652 </threshold>
						<split pos="left">
							<feature> 3 </feature>
							<threshold> 0.1380292 </threshold>
							<split pos="left">
								<output> -0.59047216 </output>
							</split>
							<split pos="right">
								<feature> 8 </feature>
								<threshold> 0.0 </threshold>
								<split pos="left">
									<output> -0.25835657 </output>
								</split>
								<split pos="right">
									<output> 0.4681919 </output>
								</split>
							</split>
						</split>
						<split pos="right">
							<output> 0.6276578 </output>
						</split>
					</split>
					<split pos="right">
						<feature> 2 </feature>
						<threshold> 45.631477 </threshold>
						<split pos="left">
							<output> -0.9664487 </output>
						</split>
						<split pos="right">
							<feature> 8 </feature>
							<threshold> 0.0 </threshold>
							<split pos="left">
								<output> -0.08041088 </output>
							</split>
							<split pos="right">
								<feature> 2 </feature>
								<threshold> 280.75443 </threshold>
								<split pos="left">
									<output> 0.28467503 </output>
								</split>
								<split pos="right">
									<output> 0.809397 </output>
								</split>
							</split>
						</split>
					</split>
				</split>
			</split>
			<split pos="right">
				<output> 0.81399286 </output>
			</split>
		</split>
	</tree>
	<tree id="45" weight="0.1">
		<split>
			<feature> 2 </feature>
			<threshold> 950.6326 </threshold>
			<split pos="left">
				<feature> 3 </feature>
				<threshold> 0.0 </threshold>
				<split pos="left">
					<output> 1.0993469 </output>
				</split>
				<split pos="right">
					<feature> 1 </feature>
					<threshold> 0.230769 </threshold>
					<split pos="left">
						<feature> 2 </feature>
						<threshold> 10.141184 </threshold>
						<split pos="left">
							<output> 1.0098792 </output>
						</split>
						<split pos="right">
							<feature> 2 </feature>
							<threshold> 23.450045 </threshold>
							<split pos="left">
								<output> 1.0029347 </output>
							</split>
							<split pos="right">
								<feature> 2 </feature>
								<threshold> 209.77396 </threshold>
								<split pos="left">
									<output> -0.7760364 </output>
								</split>
								<split pos="right">
									<output> 0.10027922 </output>
								</split>
							</split>
						</split>
					</split>
					<split pos="right">
						<feature> 2 </feature>
						<threshold> 81.12177 </threshold>
						<split pos="left">
							<output> -0.38686123 </output>
						</split>
						<split pos="right">
							<feature> 1 </feature>
							<threshold> 0.714286 </threshold>
							<split pos="left">
								<feature> 8 </feature>
								<threshold> 0.0 </threshold>
								<split pos="left">
									<output> 0.11798309 </output>
								</split>
								<split pos="right">
									<output> 0.35150114 </output>
								</split>
							</split>
							<split pos="right">
								<output> 0.6127889 </output>
							</split>
						</split>
					</split>
				</split>
			</split>
			<split pos="right">
				<output> 0.8050802 </output>
			</split>
		</split>
	</tree>
	<tree id="46" weight="0.1">
		<split>
			<feature> 2 </feature>
			<threshold> 950.6326 </threshold>
			<split pos="left">
				<feature> 3 </feature>
				<threshold> 0.0 </threshold>
				<split pos="left">
					<output> 1.0966961 </output>
				</split>
				<split pos="right">
					<feature> 1 </feature>
					<threshold> 0.230769 </threshold>
					<split pos="left">
						<feature> 2 </feature>
						<threshold> 10.141184 </threshold>
						<split pos="left">
							<output> 1.0091844 </output>
						</split>
						<split pos="right">
							<feature> 2 </feature>
							<threshold> 58.94034 </threshold>
							<split pos="left">
								<output> 0.6971317 </output>
							</split>
							<split pos="right">
								<output> -0.37862083 </output>
							</split>
						</split>
					</split>
					<split pos="right">
						<feature> 2 </feature>
						<threshold> 143.22977 </threshold>
						<split pos="left">
							<output> -0.21919855 </output>
						</split>
						<split pos="right">
							<feature> 2 </feature>
							<threshold> 147.66605 </threshold>
							<split pos="left">
								<output> 1.0318197 </output>
							</split>
							<split pos="right">
								<feature> 7 </feature>
								<threshold> 0.0 </threshold>
								<split pos="left">
									<output> -0.52415663 </output>
								</split>
								<split pos="right">
									<feature> 2 </feature>
									<threshold> 444.89676 </threshold>
									<split pos="left">
										<output> 0.38091117 </output>
									</split>
									<split pos="right">
										<output> 0.8141715 </output>
									</split>
								</split>
							</split>
						</split>
					</split>
				</split>
			</split>
			<split pos="right">
				<output> 0.7904584 </output>
			</split>
		</split>
	</tree>
	<tree id="47" weight="0.1">
		<split>
			<feature> 2 </feature>
			<threshold> 950.6326 </threshold>
			<split pos="left">
				<feature> 1 </feature>
				<threshold> 0.375 </threshold>
				<split pos="left">
					<feature> 2 </feature>
					<threshold> 325.11722 </threshold>
					<split pos="left">
						<feature> 2 </feature>
						<threshold> 10.141184 </threshold>
						<split pos="left">
							<output> 1.0085324 </output>
						</split>
						<split pos="right">
							<feature> 2 </feature>
							<threshold> 58.94034 </threshold>
							<split pos="left">
								<output> 0.589622 </output>
							</split>
							<split pos="right">
								<feature> 1 </feature>
								<threshold> 0.294118 </threshold>
								<split pos="left">
									<feature> 1 </feature>
									<threshold> 0.28 </threshold>
									<split pos="left">
										<output> -0.44663787 </output>
									</split>
									<split pos="right">
										<output> 0.57715833 </output>
									</split>
								</split>
								<split pos="right">
									<output> -1.3018795 </output>
								</split>
							</split>
						</split>
					</split>
					<split pos="right">
						<output> 0.40842125 </output>
					</split>
				</split>
				<split pos="right">
					<feature> 2 </feature>
					<threshold> 81.12177 </threshold>
					<split pos="left">
						<output> -0.38757366 </output>
					</split>
					<split pos="right">
						<feature> 1 </feature>
						<threshold> 0.714286 </threshold>
						<split pos="left">
							<output> 0.2593304 </output>
						</split>
						<split pos="right">
							<output> 0.6296858 </output>
						</split>
					</split>
				</split>
			</split>
			<split pos="right">
				<output> 0.77476734 </output>
			</split>
		</split>
	</tree>
	<tree id="48" weight="0.1">
		<split>
			<feature> 2 </feature>
			<threshold> 950.6326 </threshold>
			<split pos="left">
				<feature> 1 </feature>
				<threshold> 0.375 </threshold>
				<split pos="left">
					<feature> 2 </feature>
					<threshold> 280.75443 </threshold>
					<split pos="left">
						<feature> 2 </feature>
						<threshold> 10.141184 </threshold>
						<split pos="left">
							<output> 1.0078635 </output>
						</split>
						<split pos="right">
							<feature> 3 </feature>
							<threshold> 0.070367865 </threshold>
							<split pos="left">
								<output> -1.0661634 </output>
							</split>
							<split pos="right">
								<feature> 3 </feature>
								<threshold> 0.07578077 </threshold>
								<split pos="left">
									<output> 1.0015862 </output>
								</split>
								<split pos="right">
									<output> -0.18061152 </output>
								</split>
							</split>
						</split>
					</split>
					<split pos="right">
						<feature> 2 </feature>
						<threshold> 285.1907 </threshold>
						<split pos="left">
							<output> 1.37652 </output>
						</split>
						<split pos="right">
							<output> 0.22262429 </output>
						</split>
					</split>
				</split>
				<split pos="right">
					<feature> 2 </feature>
					<threshold> 81.12177 </threshold>
					<split pos="left">
						<output> -0.36479953 </output>
					</split>
					<split pos="right">
						<feature> 8 </feature>
						<threshold> 0.0 </threshold>
						<split pos="left">
							<output> 0.07249405 </output>
						</split>
						<split pos="right">
							<output> 0.49882016 </output>
						</split>
					</split>
				</split>
			</split>
			<split pos="right">
				<output> 0.7637886 </output>
			</split>
		</split>
	</tree>
	<tree id="49" weight="0.1">
		<split>
			<feature> 2 </feature>
			<threshold> 950.6326 </threshold>
			<split pos="left">
				<feature> 3 </feature>
				<threshold> 0.0 </threshold>
				<split pos="left">
					<output> 1.0951276 </output>
				</split>
				<split pos="right">
					<feature> 2 </feature>
					<threshold> 280.75443 </threshold>
					<split pos="left">
						<feature> 2 </feature>
						<threshold> 231.95535 </threshold>
						<split pos="left">
							<feature> 2 </feature>
							<threshold> 205.33768 </threshold>
							<split pos="left">
								<feature> 1 </feature>
								<threshold> 0.75 </threshold>
								<split pos="left">
									<feature> 1 </feature>
									<threshold> 0.6 </threshold>
									<split pos="left">
										<output> -0.3331275 </output>
									</split>
									<split pos="right">
										<output> 0.35860696 </output>
									</split>
								</split>
								<split pos="right">
									<output> -0.67171603 </output>
								</split>
							</split>
							<split pos="right">
								<output> 0.3578066 </output>
							</split>
						</split>
						<split pos="right">
							<output> -1.055189 </output>
						</split>
					</split>
					<split pos="right">
						<feature> 2 </feature>
						<threshold> 285.1907 </threshold>
						<split pos="left">
							<output> 1.2793912 </output>
						</split>
						<split pos="right">
							<feature> 1 </feature>
							<threshold> 0.714286 </threshold>
							<split pos="left">
								<output> 0.17388628 </output>
							</split>
							<split pos="right">
								<output> 0.58111066 </output>
							</split>
						</split>
					</split>
				</split>
			</split>
			<split pos="right">
				<output> 0.7490969 </output>
			</split>
		</split>
	</tree>
	<tree id="50" weight="0.1">
		<split>
			<feature> 2 </feature>
			<threshold> 799.79913 </threshold>
			<split pos="left">
				<feature> 3 </feature>
				<threshold> 0.0 </threshold>
				<split pos="left">
					<output> 1.0908667 </output>
				</split>
				<split pos="right">
					<feature> 2 </feature>
					<threshold> 444.89676 </threshold>
					<split pos="left">
						<feature> 1 </feature>
						<threshold> 0.75 </threshold>
						<split pos="left">
							<feature> 1 </feature>
							<threshold> 0.714286 </threshold>
							<split pos="left">
								<feature> 1 </feature>
								<threshold> 0.375 </threshold>
								<split pos="left">
									<feature> 1 </feature>
									<threshold> 0.3 </threshold>
									<split pos="left">
										<feature> 1 </feature>
										<threshold> 0.230769 </threshold>
										<split pos="left">
											<output> -0.3170202 </output>
										</split>
										<split pos="right">
											<output> 0.49497193 </output>
										</split>
									</split>
									<split pos="right">
										<output> -1.4681643 </output>
									</split>
								</split>
								<split pos="right">
									<feature> 1 </feature>
									<threshold> 0.444444 </threshold>
									<split pos="left">
										<output> 0.59738284 </output>
									</split>
									<split pos="right">
										<output> -0.11123707 </output>
									</split>
								</split>
							</split>
							<split pos="right">
								<output> 0.584035 </output>
							</split>
						</split>
						<split pos="right">
							<output> -0.37996385 </output>
						</split>
					</split>
					<split pos="right">
						<output> 0.5178971 </output>
					</split>
				</split>
			</split>
			<split pos="right">
				<output> 0.79168665 </output>
			</split>
		</split>
	</tree>
	<tree id="51" weight="0.1">
		<split>
			<feature> 2 </feature>
			<threshold> 799.79913 </threshold>
			<split pos="left">
				<feature> 2 </feature>
				<threshold> 444.89676 </threshold>
				<split pos="left">
					<feature> 3 </feature>
					<threshold> 0.0 </threshold>
					<split pos="left">
						<output> 1.0804765 </output>
					</split>
					<split pos="right">
						<feature> 1 </feature>
						<threshold> 0.75 </threshold>
						<split pos="left">
							<feature> 1 </feature>
							<threshold> 0.714286 </threshold>
							<split pos="left">
								<feature> 1 </feature>
								<threshold> 0.375 </threshold>
								<split pos="left">
									<feature> 2 </feature>
									<threshold> 10.141184 </threshold>
									<split pos="left">
										<output> 1.0067699 </output>
									</split>
									<split pos="right">
										<feature> 1 </feature>
										<threshold> 0.3 </threshold>
										<split pos="left">
											<feature> 1 </feature>
											<threshold> 0.230769 </threshold>
											<split pos="left">
												<output> -0.30230305 </output>
											</split>
											<split pos="right">
												<output> 0.43021706 </output>
											</split>
										</split>
										<split pos="right">
											<output> -1.455017 </output>
										</split>
									</split>
								</split>
								<split pos="right">
									<output> 0.13171577 </output>
								</split>
							</split>
							<split pos="right">
								<output> 0.5417357 </output>
							</split>
						</split>
						<split pos="right">
							<output> -0.39586142 </output>
						</split>
					</split>
				</split>
				<split pos="right">
					<output> 0.5146201 </output>
				</split>
			</split>
			<split pos="right">
				<output> 0.7796701 </output>
			</split>
		</split>
	</tree>
	<tree id="52" weight="0.1">
		<split>
			<feature> 2 </feature>
			<threshold> 444.89676 </threshold>
			<split pos="left">
				<feature> 3 </feature>
				<threshold> 0.0 </threshold>
				<split pos="left">
					<output> 1.0718435 </output>
				</split>
				<split pos="right">
					<feature> 1 </feature>
					<threshold> 0.75 </threshold>
					<split pos="left">
						<feature> 1 </feature>
						<threshold> 0.714286 </threshold>
						<split pos="left">
							<feature> 2 </feature>
							<threshold> 58.94034 </threshold>
							<split pos="left">
								<output> 0.4446586 </output>
							</split>
							<split pos="right">
								<feature> 1 </feature>
								<threshold> 0.538462 </threshold>
								<split pos="left">
									<feature> 1 </feature>
									<threshold> 0.375 </threshold>
									<split pos="left">
										<feature> 1 </feature>
										<threshold> 0.3 </threshold>
										<split pos="left">
											<feature> 1 </feature>
											<threshold> 0.230769 </threshold>
											<split pos="left">
												<output> -0.43507233 </output>
											</split>
											<split pos="right">
												<output> 0.36260217 </output>
											</split>
										</split>
										<split pos="right">
											<output> -1.4394819 </output>
										</split>
									</split>
									<split pos="right">
										<output> 0.2773242 </output>
									</split>
								</split>
								<split pos="right">
									<output> -0.5947866 </output>
								</split>
							</split>
						</split>
						<split pos="right">
							<output> 0.50978994 </output>
						</split>
					</split>
					<split pos="right">
						<output> -0.35443532 </output>
					</split>
				</split>
			</split>
			<split pos="right">
				<output> 0.57864547 </output>
			</split>
		</split>
	</tree>
	<tree id="53" weight="0.1">
		<split>
			<feature> 2 </feature>
			<threshold> 444.89676 </threshold>
			<split pos="left">
				<feature> 3 </feature>
				<threshold> 0.0 </threshold>
				<split pos="left">
					<output> 1.062473 </output>
				</split>
				<split pos="right">
					<feature> 1 </feature>
					<threshold> 0.75 </threshold>
					<split pos="left">
						<feature> 1 </feature>
						<threshold> 0.714286 </threshold>
						<split pos="left">
							<feature> 3 </feature>
							<threshold> 0.1380292 </threshold>
							<split pos="left">
								<feature> 1 </feature>
								<threshold> 0.6 </threshold>
								<split pos="left">
									<output> -0.28021637 </output>
								</split>
								<split pos="right">
									<output> -1.1803292 </output>
								</split>
							</split>
							<split pos="right">
								<feature> 1 </feature>
								<threshold> 0.6 </threshold>
								<split pos="left">
									<feature> 1 </feature>
									<threshold> 0.444444 </threshold>
									<split pos="left">
										<feature> 1 </feature>
										<threshold> 0.428571 </threshold>
										<split pos="left">
											<output> 0.048658606 </output>
										</split>
										<split pos="right">
											<output> 0.81467104 </output>
										</split>
									</split>
									<split pos="right">
										<output> -1.4050038 </output>
									</split>
								</split>
								<split pos="right">
									<output> 0.41076887 </output>
								</split>
							</split>
						</split>
						<split pos="right">
							<output> 0.46841288 </output>
						</split>
					</split>
					<split pos="right">
						<output> -0.28970468 </output>
					</split>
				</split>
			</split>
			<split pos="right">
				<output> 0.54656476 </output>
			</split>
		</split>
	</tree>
	<tree id="54" weight="0.1">
		<split>
			<feature> 2 </feature>
			<threshold> 444.89676 </threshold>
			<split pos="left">
				<feature> 1 </feature>
				<threshold> 0.875 </threshold>
				<split pos="left">
					<feature> 1 </feature>
					<threshold> 0.75 </threshold>
					<split pos="left">
						<feature> 1 </feature>
						<threshold> 0.714286 </threshold>
						<split pos="left">
							<feature> 1 </feature>
							<threshold> 0.625 </threshold>
							<split pos="left">
								<feature> 1 </feature>
								<threshold> 0.6 </threshold>
								<split pos="left">
									<feature> 1 </feature>
									<threshold> 0.444444 </threshold>
									<split pos="left">
										<feature> 1 </feature>
										<threshold> 0.428571 </threshold>
										<split pos="left">
											<feature> 1 </feature>
											<threshold> 0.375 </threshold>
											<split pos="left">
												<output> -0.1964671 </output>
											</split>
											<split pos="right">
												<output> 0.49553075 </output>
											</split>
										</split>
										<split pos="right">
											<output> 0.5466552 </output>
										</split>
									</split>
									<split pos="right">
										<output> -0.2735023 </output>
									</split>
								</split>
								<split pos="right">
									<output> 0.65247726 </output>
								</split>
							</split>
							<split pos="right">
								<output> -0.28417328 </output>
							</split>
						</split>
						<split pos="right">
							<output> 0.42282417 </output>
						</split>
					</split>
					<split pos="right">
						<output> -1.6634473 </output>
					</split>
				</split>
				<split pos="right">
					<output> 0.30080086 </output>
				</split>
			</split>
			<split pos="right">
				<output> 0.5270838 </output>
			</split>
		</split>
	</tree>
	<tree id="55" weight="0.1">
		<split>
			<feature> 2 </feature>
			<threshold> 950.6326 </threshold>
			<split pos="left">
				<feature> 2 </feature>
				<threshold> 444.89676 </threshold>
				<split pos="left">
					<feature> 3 </feature>
					<threshold> 0.0 </threshold>
					<split pos="left">
						<output> 1.0531497 </output>
					</split>
					<split pos="right">
						<feature> 2 </feature>
						<threshold> 10.141184 </threshold>
						<split pos="left">
							<output> 1.0057323 </output>
						</split>
						<split pos="right">
							<feature> 1 </feature>
							<threshold> 0.0909091 </threshold>
							<split pos="left">
								<output> -0.47794545 </output>
							</split>
							<split pos="right">
								<feature> 2 </feature>
								<threshold> 41.19519 </threshold>
								<split pos="left">
									<output> -1.181195 </output>
								</split>
								<split pos="right">
									<feature> 2 </feature>
									<threshold> 50.067764 </threshold>
									<split pos="left">
										<output> 1.3733872 </output>
									</split>
									<split pos="right">
										<feature> 1 </feature>
										<threshold> 0.692308 </threshold>
										<split pos="left">
											<feature> 1 </feature>
											<threshold> 0.555556 </threshold>
											<split pos="left">
												<output> 0.074970834 </output>
											</split>
											<split pos="right">
												<output> -0.83192104 </output>
											</split>
										</split>
										<split pos="right">
											<output> 0.28671607 </output>
										</split>
									</split>
								</split>
							</split>
						</split>
					</split>
				</split>
				<split pos="right">
					<output> 0.46752778 </output>
				</split>
			</split>
			<split pos="right">
				<output> 0.7055291 </output>
			</split>
		</split>
	</tree>
	<tree id="56" weight="0.1">
		<split>
			<feature> 2 </feature>
			<threshold> 950.6326 </threshold>
			<split pos="left">
				<feature> 2 </feature>
				<threshold> 409.40652 </threshold>
				<split pos="left">
					<feature> 3 </feature>
					<threshold> 0.0 </threshold>
					<split pos="left">
						<output> 1.0502632 </output>
					</split>
					<split pos="right">
						<feature> 1 </feature>
						<threshold> 0.75 </threshold>
						<split pos="left">
							<feature> 1 </feature>
							<threshold> 0.714286 </threshold>
							<split pos="left">
								<feature> 3 </feature>
								<threshold> 0.1380292 </threshold>
								<split pos="left">
									<feature> 1 </feature>
									<threshold> 0.6 </threshold>
									<split pos="left">
										<feature> 1 </feature>
										<threshold> 0.375 </threshold>
										<split pos="left">
											<output> -0.5107914 </output>
										</split>
										<split pos="right">
											<output> 0.21464926 </output>
										</split>
									</split>
									<split pos="right">
										<output> -1.4389632 </output>
									</split>
								</split>
								<split pos="right">
									<feature> 8 </feature>
									<threshold> 0.0 </threshold>
									<split pos="left">
